<?xml version="1.0"?>
<opencv_storage>
<my_svm type_id="opencv-ml-svm">
  <svm_type>C_SVC</svm_type>
  <kernel><type>LINEAR</type></kernel>
  <C>1.</C>
  <term_criteria><epsilon>2.2204460492503131e-16</epsilon>
    <iterations>100</iterations></term_criteria>
  <var_all>2450</var_all>
  <var_count>2450</var_count>
  <class_count>2</class_count>
  <class_labels type_id="opencv-matrix">
    <rows>1</rows>
    <cols>2</cols>
    <dt>i</dt>
    <data>
      -1 1</data></class_labels>
  <sv_total>1</sv_total>
  <support_vectors>
    <_>
      6.82145765e-06 -1.11063482e-05 5.24988127e-06 1.39932490e-06
      -2.04379448e-05 9.71459885e-05 1.73725741e-04 2.00483802e-04
      1.09615314e-04 7.60453986e-05 6.81427045e-05 4.39899268e-05
      -9.35878052e-05 -5.53359168e-05 -3.15577890e-05 2.80442891e-05
      4.83207841e-05 -4.48511528e-05 1.79606031e-05 1.55919188e-05
      -2.31026297e-05 3.37922247e-05 -1.19568183e-04 3.00138872e-05
      -6.21906365e-05 -2.42866299e-05 2.95653626e-06 6.08030859e-06
      -2.99491239e-05 8.51485966e-05 -1.61548596e-05 9.84297549e-06
      6.85477426e-05 -1.43131838e-05 -1.84462879e-05 7.74068467e-05
      6.04443594e-05 -1.32200621e-05 1.22487472e-05 -2.97507268e-05
      -1.13004407e-05 7.15216811e-05 8.42726149e-05 2.53156049e-05
      2.08054166e-06 2.05192973e-05 -7.75264634e-05 -8.12571307e-06
      -1.19965727e-04 4.76199057e-05 -2.91585311e-05 -6.80702578e-05
      -7.01368190e-05 -6.96810966e-05 -3.60260346e-05 -7.92435385e-05
      3.00270931e-05 -3.94054223e-05 1.81773066e-05 4.80722374e-05
      -5.99049090e-05 -8.44905444e-05 3.48282265e-05 3.47861351e-05
      2.18921050e-05 1.45167915e-05 8.09470730e-05 1.24059923e-04
      1.32130415e-04 7.07418512e-05 1.43088488e-04 7.54076464e-05
      -3.55722914e-05 -5.87056129e-05 -6.73976047e-06 -4.18166701e-06
      1.50287497e-05 -3.15951693e-05 -3.02659851e-06 -1.80927127e-05
      1.13592359e-05 -7.77636615e-06 -1.83055381e-05 -2.75631446e-05
      4.44978250e-05 7.97675821e-05 8.81380220e-06 9.05018387e-05
      8.69446158e-05 -8.27391268e-05 -1.41111872e-04 -8.96583952e-05
      -5.09158490e-05 6.04121960e-05 -2.70825713e-05 -9.01308431e-06
      -9.95221417e-05 6.13818484e-05 4.63523465e-05 9.79039833e-05
      7.03346959e-05 8.97326172e-05 4.97467445e-05 1.04529252e-04
      1.29494438e-04 1.27565974e-04 1.40773016e-04 9.62037666e-05
      1.53249377e-04 -8.24985364e-06 3.11752774e-05 2.02943029e-05
      -5.49576980e-05 -1.00282095e-05 -9.66228254e-06 -5.43454371e-05
      -1.93386550e-05 2.87202147e-05 -2.43345312e-05 2.02174615e-05
      -1.22707361e-05 -5.31337282e-05 -7.18493538e-05 -1.37208481e-04
      -8.74220495e-06 -1.02139529e-04 -7.78755202e-05 -1.77676367e-04
      -1.41015829e-04 1.56068942e-04 -9.39540496e-06 -3.76934804e-05
      -3.00091997e-05 1.27590047e-05 3.79662961e-05 2.71850640e-05
      5.03995507e-05 1.50655833e-04 1.08906650e-04 1.18798424e-04
      1.05703846e-04 8.16120009e-05 -1.77861875e-05 1.52281820e-04
      1.48457606e-04 1.42084435e-04 8.51885052e-05 1.52920620e-04
      3.47618443e-05 1.98690723e-05 4.32144698e-05 2.93742887e-05
      -1.86515153e-05 3.27750749e-05 -4.30374421e-05 -5.24945972e-05
      2.37875211e-05 -5.49278684e-06 -1.29425520e-04 -1.45183789e-04
      -7.96531094e-05 1.49998186e-05 -2.89544259e-05 -4.93127554e-05
      1.01003519e-04 6.26222172e-05 8.05419550e-05 1.68469232e-05
      2.22424296e-05 -1.87747191e-05 -1.47886358e-05 -1.12563328e-04
      4.17650008e-05 3.56942619e-05 1.77047459e-05 8.28817283e-05
      8.41159272e-06 -5.44029026e-05 1.27728752e-04 1.40472812e-05
      2.16263998e-05 9.39140737e-05 8.03182484e-05 -1.03548537e-05
      -1.30108863e-04 -1.18404947e-04 -4.20750803e-05 -4.56919879e-05
      1.07393527e-04 1.34929032e-05 -6.24203967e-05 -9.91845518e-05
      -1.36681512e-04 -1.91058702e-04 -1.76405912e-04 -7.03664045e-05
      6.95703829e-06 -1.58699022e-05 2.17368306e-05 -4.23372112e-05
      5.82870925e-05 6.15560348e-05 9.41412072e-05 -6.73705335e-06
      -1.20206038e-04 -3.43688480e-05 -3.27181297e-05 4.42211531e-05
      6.14024684e-05 5.62145506e-05 -6.84691622e-05 -4.97587098e-05
      -1.92938838e-04 -1.15610259e-04 -1.40153221e-04 -5.13812702e-05
      9.64797218e-05 7.69508624e-05 6.43550156e-05 -2.77530016e-05
      -9.22261897e-05 -8.01839633e-05 -1.08150409e-04 -3.88762637e-05
      -3.65468550e-05 -1.08493790e-04 5.17911667e-06 -4.92833824e-05
      -1.17061405e-04 -3.83596416e-05 -7.68172104e-05 -2.55001123e-06
      1.00578072e-04 3.19266910e-05 -6.19809452e-06 7.93089384e-06
      8.05806776e-05 7.45439174e-05 7.35602589e-05 1.40216784e-04
      8.99033039e-05 -5.10029963e-07 6.50264565e-06 3.32340605e-05
      1.98501893e-05 -1.00904530e-04 -1.03027465e-04 -1.48571999e-04
      -1.58475828e-04 -4.07117077e-05 5.86156557e-06 1.05457781e-04
      -2.44867751e-05 -2.48046163e-05 1.43618263e-05 -1.23710051e-04
      -1.09517576e-04 -5.33032653e-05 -1.72751588e-05 -8.42736554e-05
      -1.18390933e-04 1.44341484e-05 9.91462366e-05 -2.99883577e-05
      -1.21967547e-04 -1.04841019e-04 2.90832977e-05 6.03917724e-05
      -1.43983698e-05 -5.08175544e-05 -2.26892626e-05 -1.08683453e-05
      3.79696357e-05 5.50313016e-05 9.79791148e-05 1.57772774e-06
      -3.73766707e-05 -4.40304939e-05 -6.46827757e-05 -9.78290518e-06
      -8.04076044e-05 -2.63116945e-05 -1.66419704e-04 -7.42295597e-05
      1.22361562e-05 3.69931331e-06 9.53148920e-05 2.92996665e-05
      5.13615669e-05 -5.65123082e-05 -1.28964472e-04 -7.20635362e-05
      -7.10752647e-05 5.25494834e-05 3.80917409e-05 -5.02787880e-05
      -1.24068276e-04 2.10413837e-05 -6.09947856e-05 -1.20707868e-04
      -4.27887835e-06 2.69104567e-05 -3.80941347e-05 -7.50006511e-05
      -4.41434277e-05 -1.46155844e-05 -4.08581946e-05 -3.34716460e-05
      2.43710692e-05 -2.22244635e-05 2.47710177e-05 -1.09652901e-04
      -3.48492649e-05 -7.60330659e-06 -6.24875829e-05 -1.31112247e-05
      -5.40308429e-05 -7.57142407e-05 -2.57889369e-05 -4.14837195e-05
      -4.18883974e-05 3.34961005e-05 -8.57212854e-06 -6.89837616e-05
      -1.55194299e-04 -1.39461568e-04 -8.98141516e-05 1.70887197e-05
      6.65523476e-05 2.89863638e-05 7.15242350e-05 -9.64956998e-05
      -4.82521500e-05 -1.16702147e-04 -8.62426241e-05 2.86278901e-05
      4.53811253e-06 -1.46356200e-07 4.11463079e-05 9.54642837e-06
      3.31434130e-05 -1.24399503e-05 1.69816267e-05 -6.60229998e-05
      -4.58350514e-05 -3.28231836e-05 -8.01710412e-05 -1.48500665e-04
      -5.04618874e-05 -5.21064940e-05 -7.60461407e-05 -6.35863107e-05
      -4.83119875e-05 -1.49884181e-05 -1.62234737e-05 -4.87513717e-05
      3.70640773e-05 -4.31052104e-05 2.57362080e-05 -1.94357235e-05
      -3.84643354e-05 -1.16007912e-04 1.20759352e-04 1.66944403e-04
      8.81240994e-05 -2.52905811e-05 -2.80266045e-06 -2.06811492e-05
      -5.23714662e-05 -1.11819158e-04 8.55209782e-06 -1.80721854e-05
      -2.10829276e-05 3.77920514e-05 -4.14984515e-06 -4.63928518e-05
      2.95716218e-05 1.07375694e-04 -9.04277331e-05 -1.43132827e-04
      -3.99566197e-05 -2.66934308e-06 -5.96552354e-06 4.44554717e-05
      3.97013282e-05 -5.89507108e-05 -5.49505858e-05 -1.16481839e-04
      -1.15626581e-05 5.06056240e-05 -2.97776660e-05 9.55477299e-06
      -4.16487019e-05 -4.16338371e-05 -6.18706254e-05 -7.59957038e-05
      -6.69323636e-05 1.15997849e-04 1.08081229e-04 2.52225309e-05
      -7.96921177e-06 7.93946310e-05 1.72620985e-05 -3.36035846e-05
      -2.91826655e-05 1.91888012e-05 7.09075675e-06 5.10070931e-05
      -6.07851189e-06 -1.12937887e-05 -1.58289481e-06 -9.28058671e-06
      1.50280857e-05 -2.25089989e-05 -1.70552361e-04 -1.04288141e-04
      -7.53512086e-06 -3.10281357e-05 -4.99808630e-06 -2.24704800e-05
      3.95918833e-05 5.25016439e-05 -8.11618374e-05 -6.39554055e-05
      -6.74937473e-05 -1.24489845e-04 7.12319670e-05 5.20728827e-06
      -1.61520875e-05 -1.33791800e-05 7.75561784e-05 6.35543693e-05
      1.07975866e-04 7.80758564e-05 5.85508460e-05 1.61007556e-05
      -6.58678573e-06 -6.24197901e-06 5.54455110e-05 2.15512082e-05
      4.28441599e-05 -7.28300074e-05 1.23688311e-04 -4.40612757e-06
      3.55240918e-05 -5.53122627e-05 -5.85470334e-05 -4.05843712e-05
      4.38740826e-05 6.64217514e-05 -5.94551420e-05 -1.03076869e-04
      -7.88184309e-07 -2.18908863e-05 1.16707924e-05 4.48598148e-05
      1.33152516e-05 -5.97575236e-05 4.42805731e-06 -1.60684125e-04
      -1.31934110e-04 4.15080394e-05 1.38360601e-05 -9.15979456e-07
      1.11904264e-05 8.45766481e-05 8.79432773e-05 6.89403823e-05
      -5.25874202e-05 3.02272856e-05 -5.09295824e-05 6.01662286e-05
      1.60998279e-05 6.27973859e-05 5.45769672e-06 2.10311136e-05
      -2.21525625e-05 1.26334242e-04 1.01062469e-04 1.92870375e-05
      -1.13555085e-04 -4.45802070e-05 -2.26240154e-05 -1.27797939e-05
      -4.96657849e-05 -1.23921573e-05 -5.05064781e-05 -1.43853715e-04
      1.48130348e-05 1.32201239e-05 1.63098521e-04 1.42965509e-04
      -3.27331545e-05 -4.30672808e-05 -1.10325245e-05 -1.43340621e-05
      1.06291795e-04 5.93901168e-05 5.67970928e-05 6.55538906e-06
      1.11241694e-04 4.55018017e-05 -3.60602717e-05 3.72046816e-05
      2.75746174e-06 -1.82554268e-05 -5.31499973e-05 2.26220454e-05
      -8.78743049e-06 -2.10053095e-05 -1.12174450e-04 -8.60634027e-05
      1.22330193e-05 8.36120817e-05 -1.05197345e-04 -9.72117632e-05
      -4.65054472e-05 -9.48240850e-05 -4.42596247e-05 -1.20493987e-05
      -9.14523935e-06 6.60744845e-05 -1.45968428e-04 -6.14055680e-05
      -8.09604462e-05 -5.56138002e-06 -3.64564198e-06 -6.72589231e-05
      -7.74374421e-05 -2.07355115e-05 -2.81560151e-05 -5.40311248e-06
      3.49771908e-05 2.18277382e-05 2.55057294e-05 -3.32133241e-05
      1.10782494e-05 -1.01892248e-04 4.69487568e-05 -2.16684475e-05
      -7.84731819e-05 -3.45310655e-05 -3.65150372e-05 -9.83175778e-05
      -2.37318218e-05 -3.70376847e-06 -1.42841009e-05 -4.47862367e-05
      5.93570112e-05 -1.74956449e-06 -8.25839379e-05 -3.23487293e-05
      5.67995157e-05 2.46737181e-05 6.54008400e-05 -4.34498652e-05
      -1.84538912e-05 -1.16322444e-04 -2.76597839e-05 -1.18661315e-04
      -5.86458518e-05 -6.08966184e-05 -1.63840905e-05 -7.50330291e-05
      -7.14263224e-05 -6.43914173e-05 -2.83208301e-05 8.60687142e-05
      1.73633198e-05 -2.24885098e-05 8.24725430e-06 1.34790544e-05
      -6.61790837e-05 -2.57012089e-05 -7.32010521e-05 -6.61471422e-05
      4.56382877e-05 2.90144508e-05 4.76516652e-05 3.42056628e-05
      5.55011684e-05 -4.78106085e-05 -3.96912728e-05 1.35876389e-05
      -5.40276915e-06 -8.34960883e-05 -1.96858800e-05 -1.02282633e-04
      6.64511026e-05 4.87143807e-05 4.48511419e-05 -1.31955421e-05
      -1.09462228e-04 -1.50409160e-05 1.26555087e-05 -6.95145718e-05
      7.62292984e-07 -8.87196511e-05 -1.86378675e-05 -5.07884870e-05
      3.81308128e-05 3.80657330e-05 5.95381389e-05 3.64206721e-06
      2.79641099e-05 8.01652714e-05 1.33455294e-04 -2.61979603e-05
      -8.71975790e-05 1.47527144e-05 4.25991038e-06 3.50808773e-06
      -2.79967080e-05 4.25853905e-05 4.23194833e-05 5.34230749e-05
      -1.15639014e-04 -8.62246598e-05 -6.92411195e-05 -1.69532232e-05
      -4.12186419e-05 -1.35915070e-05 -2.65208769e-06 -8.14355553e-06
      -2.37583681e-05 6.95568588e-06 -5.27628181e-05 -2.39991077e-05
      6.96855495e-05 5.46258088e-05 3.51569215e-05 -9.16724093e-06
      -8.99773222e-05 -5.22840928e-05 -7.63867647e-05 -1.19914599e-04
      -5.41391273e-06 2.01712501e-05 -4.18256677e-05 -4.97720794e-06
      5.09851452e-05 4.53932580e-06 -8.43265025e-06 -1.95225766e-05
      -7.49002793e-05 2.53528469e-05 2.47928401e-05 1.09212460e-05
      1.00359157e-05 4.96360917e-05 2.76367755e-05 -2.57115189e-05
      -7.47001977e-05 -1.04395940e-05 2.26094235e-05 1.14164926e-04
      1.84773944e-05 -2.04780263e-05 -2.67207761e-05 -3.86982865e-05
      -9.50115179e-07 3.36146768e-05 -2.06412733e-05 1.91184899e-05
      2.90178127e-06 8.83508183e-05 6.32944575e-05 -5.68550313e-05
      -6.42187661e-05 -1.06789215e-04 -1.15924369e-04 -2.46558869e-07
      2.14830397e-05 -3.70856033e-05 -4.11960209e-05 -9.87779731e-06
      4.05472820e-05 -1.95133980e-05 4.78501261e-06 7.79738639e-06
      2.50799822e-05 4.98640002e-05 4.30456639e-05 -1.77863985e-05
      3.70524936e-06 -4.22068370e-05 -4.32649613e-05 -5.75882987e-05
      8.30056961e-05 1.23497128e-04 6.45083346e-05 7.47103477e-05
      -3.09802635e-05 -1.05017985e-04 5.09006277e-05 3.15834041e-05
      -5.28744604e-05 -2.86646718e-05 -2.19311860e-05 -2.45589717e-06
      1.01521822e-04 6.62840466e-05 2.42887381e-05 7.77996538e-05
      -5.72409735e-05 -8.60143409e-05 -9.93015055e-06 -5.51359653e-06
      -1.40772754e-05 -2.41990747e-05 2.72347770e-05 1.41035953e-05
      -9.05007764e-05 -1.70116487e-04 -6.47024990e-06 -4.54031579e-05
      -1.77733764e-05 -7.80025221e-05 -6.85550112e-05 -8.80360385e-05
      5.30301877e-05 -1.06107102e-04 -5.69379117e-05 -7.24393540e-05
      -7.53238637e-05 -3.85179956e-05 -3.49337352e-05 -2.63885377e-05
      -8.46238545e-05 3.56422643e-05 -7.71076520e-05 -5.30192083e-05
      -5.69445583e-05 -1.98790508e-06 -8.01462829e-06 4.44690304e-05
      7.01178069e-05 8.36924373e-05 8.05286618e-05 -6.52980589e-06
      -5.27076445e-05 -8.65638140e-06 -4.53993089e-05 -1.57394352e-05
      -4.84811353e-05 2.56907533e-05 3.35879668e-05 1.20903569e-05
      -9.40791579e-05 -1.79093950e-05 -4.72786924e-05 1.25164461e-05
      -1.20518944e-05 2.21898154e-05 -1.96865785e-05 -9.90281137e-07
      1.57558952e-05 2.43996474e-05 6.45509062e-05 -6.86305648e-05
      5.08497897e-06 1.87726823e-06 -4.61506024e-05 -2.44678922e-05
      6.85665218e-05 -5.50727964e-05 -5.66338967e-05 4.88598744e-06
      -7.06423725e-06 -1.00566613e-04 7.38115195e-05 2.60196448e-05
      -1.01901060e-06 8.77394268e-05 3.59575170e-05 -1.61942517e-05
      5.58493884e-05 1.81600058e-06 2.36691794e-05 9.39178062e-06
      -1.31462657e-05 -5.58773281e-05 -3.27418929e-05 5.99179402e-05
      3.42603998e-05 1.99330443e-05 1.30353665e-05 -1.72955421e-04
      -1.23583639e-04 -1.05073028e-04 4.80577037e-05 3.39325488e-05
      -2.12084724e-05 -1.53787005e-05 -9.34402851e-06 -4.62673779e-05
      -4.46150843e-05 -5.59407817e-05 -3.71253773e-05 1.16218493e-04
      5.17072185e-05 6.55093318e-05 -1.02565013e-04 4.45090018e-06
      -4.62442986e-05 4.18593845e-05 1.76223366e-05 2.37536478e-05
      -3.71940405e-05 2.82981764e-05 2.75108632e-05 1.71580705e-05
      -1.44206342e-05 -4.22973390e-05 5.58052989e-06 5.60554909e-05
      -2.70421406e-05 -7.30840611e-07 3.47073546e-05 -5.88101329e-06
      3.10527394e-05 -5.93839723e-05 -1.62240452e-04 -1.08195563e-04
      -1.10297085e-04 -6.18512786e-05 6.65401894e-05 -6.69072051e-06
      -2.01040148e-05 -7.30033571e-05 -8.73170356e-05 -3.17995291e-05
      -7.09312662e-05 1.28752272e-05 -1.23959922e-04 2.32409147e-05
      8.50187644e-05 8.41235887e-05 1.17795818e-04 9.23027910e-05
      1.55492107e-05 3.70735870e-05 2.24544983e-05 -1.76458088e-05
      -2.74977847e-05 -4.68783146e-05 -1.19018869e-05 -2.63315269e-05
      -5.60409862e-05 -2.42053693e-06 -2.61179525e-06 -6.74717303e-05
      -8.19452271e-06 3.13252076e-06 1.77667280e-05 8.13066872e-05
      -8.80400476e-05 -5.93038749e-05 -8.50356446e-05 -3.67642751e-05
      -4.38883217e-05 5.51535450e-05 -4.68627877e-05 1.78925657e-05
      -1.38448289e-04 -2.56440951e-04 -6.52912713e-05 -9.69800822e-05
      4.60994997e-05 3.46374327e-05 1.28368541e-04 -1.31370541e-06
      1.90327955e-05 1.27407511e-05 1.64453213e-05 -7.73105276e-05
      -7.77635723e-05 -9.33695555e-05 5.40472756e-05 -3.47503519e-05
      -6.64883992e-05 -2.83771988e-05 -3.02620938e-05 -1.81987125e-05
      8.97832615e-06 -1.43247889e-05 8.17974869e-05 3.44540495e-05
      -2.11487968e-05 -3.79859994e-05 4.02508631e-05 -3.57672798e-05
      -1.32327114e-04 -3.43483152e-05 6.60335281e-05 6.00691346e-05
      1.29655600e-04 5.71902965e-05 7.14214184e-05 -1.24576705e-04
      -1.86531135e-04 -1.04342835e-04 -1.88985323e-05 3.54361691e-05
      1.10929337e-04 6.68202119e-05 -2.72050966e-05 4.38307106e-05
      3.43498687e-05 5.90774907e-05 8.36547042e-05 1.08381442e-04
      -5.15392676e-05 2.85834976e-05 7.55733490e-05 8.35515675e-05
      -7.44168756e-06 5.29468416e-05 6.28424823e-05 -5.28510063e-05
      1.01891601e-04 7.63345888e-05 3.62150013e-06 -1.32546293e-05
      -2.43470731e-05 -4.95782842e-05 6.29707356e-05 7.58850147e-05
      -2.64845567e-05 -2.00798586e-05 8.58670501e-06 6.75482952e-05
      1.20626428e-04 4.57376927e-06 -9.74802388e-05 -1.58741277e-05
      -1.35377832e-05 8.39304994e-05 -5.45540752e-05 -1.13121685e-04
      1.43292797e-04 -4.48897226e-05 6.02147593e-05 8.72738092e-05
      7.46214791e-05 1.26619343e-04 1.73923385e-04 6.06092653e-05
      1.11095105e-04 1.53142711e-04 1.29999069e-04 2.99966250e-05
      -6.56279444e-05 -1.22324083e-04 -8.67789058e-05 1.25612452e-04
      7.00882083e-05 1.12473223e-04 -1.80569714e-05 -1.04597450e-04
      -1.12248359e-04 -1.75569912e-05 -4.30612890e-05 -3.55598386e-05
      4.90174261e-06 -4.62839707e-05 4.51937922e-05 5.90557902e-05
      -6.05265996e-05 1.59931387e-05 2.07463509e-05 2.75971124e-05
      1.03385355e-04 -1.11570880e-04 -1.06099433e-04 4.74211738e-05
      -1.36337374e-04 -1.90174524e-05 -2.20677907e-06 1.65993843e-05
      4.73031068e-05 1.87691203e-05 -3.61232233e-05 4.31455264e-05
      7.28618179e-05 4.26140177e-05 5.98548540e-05 5.86743517e-05
      -1.32465975e-05 -2.41177640e-05 1.43826455e-05 1.69119612e-05
      6.30533686e-05 9.07881258e-05 1.31684487e-07 -3.10195173e-05
      -4.92950203e-05 -7.70312545e-05 -5.61155105e-07 -4.50444568e-05
      -8.61904118e-05 7.86890723e-06 7.61903066e-05 -3.43046122e-05
      -1.05513740e-04 -1.71447246e-04 3.45762965e-05 2.00774757e-05
      2.77381769e-05 6.98503281e-05 -2.09392092e-05 -1.02760336e-04
      -1.02792772e-04 -4.62705138e-05 -5.63577378e-05 4.12557938e-06
      -9.23510652e-06 -4.01123289e-05 -4.66347701e-05 1.63330897e-05
      2.99101848e-05 7.67055608e-05 7.75816006e-05 -3.58125108e-05
      -8.29570199e-05 -1.16975589e-05 -1.30476556e-05 -6.30140266e-06
      7.16720242e-05 7.94520383e-05 4.55681147e-05 1.68276420e-05
      -3.08679992e-05 9.44007697e-05 4.15246104e-05 2.20775182e-05
      -9.90928675e-05 4.84257134e-06 -4.38595562e-05 -2.67205876e-04
      -7.53606873e-05 4.75413908e-05 9.37295626e-05 2.73663263e-05
      -1.17564450e-05 -6.61544836e-05 -4.81379539e-05 -4.39858486e-05
      3.45383523e-05 -6.11989162e-05 3.99621640e-05 7.93863728e-05
      6.37839548e-05 1.96324072e-05 -4.80488343e-05 4.64981240e-05
      8.84321707e-05 8.79894797e-05 8.24102463e-05 -2.07640187e-05
      3.22739324e-05 -3.42892999e-05 -8.69557553e-05 -2.82346014e-06
      9.26582015e-06 8.78591709e-06 2.45388455e-05 -4.66324855e-05
      1.20872992e-05 -8.02906361e-05 -5.12593469e-05 -7.59624309e-05
      -1.45197637e-05 -1.82712218e-04 -1.25102684e-04 1.27143474e-04
      -1.13209331e-04 -5.66741983e-05 2.31612630e-05 4.77643807e-05
      -6.79892764e-05 -7.99330664e-05 3.88447188e-05 8.60164582e-05
      1.04711464e-04 5.41366171e-05 -4.34350432e-06 5.19701425e-05
      -9.43015693e-05 -9.01326057e-05 -4.95262429e-05 1.64383273e-05
      -9.42702263e-06 -4.40016556e-05 -6.94621122e-05 -3.20697072e-05
      -2.74490285e-05 2.95331829e-05 -5.83791780e-06 -4.17104166e-05
      -3.91485046e-05 4.17510710e-05 -4.40170152e-05 -3.77093747e-05
      2.70359888e-05 4.89831609e-06 -5.73184661e-05 -1.10439862e-04
      -1.30909233e-04 -6.45749096e-05 -3.47934947e-05 -1.46121442e-04
      -6.95192357e-05 1.53222063e-05 3.48973517e-05 -4.49740946e-06
      1.05120591e-04 -2.83627960e-05 7.09058440e-05 1.13688264e-04
      6.20050487e-05 4.53306238e-05 -1.03722940e-07 -2.67374016e-05
      -4.36021110e-05 -1.06006548e-04 -1.54883950e-04 -1.07188338e-04
      -8.81404867e-06 2.17177894e-05 5.68366886e-05 -3.98148804e-05
      3.74770570e-06 -2.66698462e-05 -1.39797659e-04 -1.69310588e-04
      -2.98530085e-06 7.54005378e-05 4.77949361e-05 -3.24258963e-06
      -1.62400211e-05 1.05086147e-04 -1.44872938e-05 -7.18060328e-05
      -1.10147914e-04 -1.45411803e-04 7.84039585e-05 -2.55242740e-05
      -5.38670974e-05 -7.33403340e-06 1.54313545e-06 -5.42716634e-06
      3.24804023e-05 1.14509567e-04 1.11684945e-04 4.00373538e-05
      2.05783817e-05 -3.53091709e-05 2.43634368e-05 -7.56308436e-05
      -6.30327268e-05 4.02693422e-06 -8.01807691e-05 1.06275860e-04
      -1.36640409e-07 3.05081867e-05 -2.35070893e-05 -1.42069024e-04
      -5.78994586e-05 -1.49409971e-04 -4.84974335e-05 4.25397375e-05
      1.50488180e-04 5.83826331e-05 8.70531876e-05 -1.15242692e-04
      5.53486643e-05 8.57059567e-05 4.22789344e-05 -6.66451961e-05
      -1.22170575e-04 -3.80126512e-05 -6.76420314e-05 -7.77630848e-05
      -5.03275714e-06 1.34792308e-05 3.46802881e-05 1.36220930e-04
      6.30879076e-05 5.43525202e-05 9.43086488e-05 2.75470793e-05
      -4.19276921e-06 1.29799082e-04 3.27293419e-05 3.77125289e-05
      4.22196972e-05 -5.57663770e-05 5.20097601e-05 -5.44604154e-05
      1.08625201e-04 3.19041283e-05 -9.99619879e-05 -4.97898764e-05
      -4.10539214e-05 2.46422442e-05 -2.16596491e-05 1.23941616e-04
      -1.43523303e-05 5.72675308e-05 -1.05507141e-04 4.71094318e-05
      3.28006827e-05 1.97724621e-05 -1.17942283e-04 -2.13733671e-04
      -5.06993129e-05 -8.40886933e-05 -8.92928729e-05 -2.85026344e-05
      2.59560620e-05 6.23651213e-05 9.52078190e-05 8.20635178e-05
      7.74942673e-05 7.97167158e-05 9.41149119e-05 1.11850546e-04
      9.69229586e-05 7.03965343e-05 6.17329788e-05 5.34747014e-05
      6.55481635e-05 8.69217838e-05 1.02333957e-04 9.33034462e-05
      9.26891516e-05 7.34668502e-05 8.40873690e-05 6.25738248e-05
      9.09728915e-05 1.20528115e-04 9.39991369e-05 7.61332412e-05
      8.36335457e-05 1.08095686e-04 1.07185850e-04 7.61824194e-05
      3.93143928e-05 -5.40963265e-05 -3.52094212e-05 -4.75529414e-05
      3.67687826e-05 6.00398489e-05 8.59483116e-05 9.08767688e-05
      9.59228637e-05 9.99670156e-05 1.23694539e-04 1.40175602e-04
      3.87746913e-05 3.23764725e-05 4.54160909e-05 5.24095085e-05
      4.80103190e-05 3.93584887e-05 2.94490710e-05 4.81720781e-05
      7.22179611e-05 8.12400322e-05 6.95197232e-05 2.80037166e-05
      2.45711308e-05 2.73533715e-05 5.14452313e-06 2.69843804e-06
      2.99040094e-05 -6.21143181e-06 -1.06408188e-05 -8.90412502e-06
      6.68675202e-05 9.18073201e-05 1.07179330e-04 9.99283802e-05
      6.78142387e-05 5.81889835e-05 5.25970318e-05 6.93666079e-05
      8.87640999e-05 1.12887377e-04 1.10656300e-04 1.09491637e-04
      9.69494649e-05 1.07923217e-04 1.20195247e-04 4.00517638e-05
      5.01996074e-05 6.70533191e-05 6.75671909e-05 3.58860198e-05
      1.55098473e-06 -3.28742431e-06 -5.29719910e-06 1.60464861e-05
      1.74637771e-05 2.53689086e-05 -9.71646114e-06 -1.57507293e-05
      -4.38752541e-05 -5.56241284e-05 -8.31165089e-05 -5.16478176e-05
      -3.39276667e-05 -9.11362586e-05 -4.82123432e-05 2.82188557e-05
      5.39829853e-05 5.55699298e-05 6.37960620e-05 4.29099709e-05
      4.43253921e-05 2.45135725e-05 2.85684837e-05 2.97893021e-05
      5.99262494e-05 5.91579628e-05 7.08074076e-05 9.88107276e-05
      1.06694308e-04 1.32781410e-04 7.90988779e-05 8.94771219e-05
      9.22699328e-05 8.30332283e-05 4.19631469e-05 4.15584555e-06
      2.81053944e-05 2.81505272e-05 3.18959283e-05 4.67966784e-05
      3.82068756e-05 8.56200677e-06 -1.45038553e-06 9.40157224e-06
      2.54963761e-05 3.43559477e-05 9.37386067e-05 8.05507225e-05
      -1.99684710e-05 -8.25710231e-06 2.83276095e-05 3.83629122e-05
      2.53356775e-05 2.78176321e-05 3.55377415e-06 -1.15228431e-05
      -4.73174769e-05 -4.43977915e-05 -8.14743544e-05 -7.72890635e-05
      -3.32029813e-05 3.37591450e-06 6.66112319e-05 1.02998500e-04
      1.21874589e-04 5.58151623e-05 2.45594529e-05 1.36911385e-05
      -5.11839698e-06 -3.50924674e-05 -5.45763942e-05 -8.10412675e-05
      -1.40887947e-04 -1.27212508e-04 -7.92517021e-05 -5.25895484e-05
      -8.23731098e-05 -7.92684805e-05 -5.48204989e-05 -3.26177287e-05
      -3.00248521e-05 -1.77245529e-05 -2.44970778e-07 -5.11509279e-05
      -1.38523264e-05 2.22010458e-05 4.46915365e-05 3.48003632e-05
      2.95158170e-05 1.23850868e-05 -2.05776760e-05 -4.03001031e-05
      -7.48469665e-06 -3.03757611e-06 7.28632756e-07 -1.29584205e-05
      -3.06009315e-06 3.75629788e-05 8.43424787e-05 1.01159341e-04
      3.43383108e-05 2.83851068e-06 -2.34173672e-06 -1.46205821e-05
      -3.85250169e-05 -4.29190222e-05 -5.06265314e-05 -7.17496951e-05
      -6.19474013e-05 -4.99773232e-05 -7.54688954e-05 -9.64003775e-05
      -1.08344735e-04 -9.81457124e-05 -6.99409065e-05 -5.68463875e-05
      -5.61294146e-05 -3.04044806e-05 -3.92931070e-05 -2.89138661e-05
      2.07705143e-05 2.93059511e-05 7.28394571e-06 -8.91214540e-07
      -2.08719648e-05 -4.89827144e-05 -7.36577349e-05 -2.62492849e-05
      -7.71811756e-06 -1.84790842e-05 -1.87583773e-05 1.59767969e-05
      5.36240841e-05 7.44693170e-05 9.23933112e-05 6.58553763e-05
      2.65465915e-05 3.42101885e-05 2.34846921e-05 -1.83793111e-06
      -1.96968977e-05 -3.61948114e-05 -7.73956417e-05 -9.57905213e-05
      -7.25551872e-05 -9.11958923e-05 -9.09877053e-05 -1.00309931e-04
      -7.46986479e-05 -6.16528923e-05 -5.73104990e-05 -4.59548355e-05
      -4.34300127e-05 -4.18794662e-05 -3.53363030e-05 -1.90687078e-05
      6.25625535e-06 2.28387057e-06 -8.52194717e-06 -2.78397565e-05
      -4.20492361e-05 -6.26114706e-05 -2.25269305e-05 -2.55171199e-05
      -1.96178880e-05 9.12296582e-06 1.47117589e-05 5.48992684e-05
      6.37976700e-05 8.41342044e-05 4.47985731e-05 1.96420533e-05
      3.25674300e-05 2.10298022e-05 -2.43515242e-05 -3.63817489e-05
      -4.60705596e-05 -7.49401006e-05 -7.95099913e-05 -5.13333216e-05
      -6.42570958e-05 -7.84595686e-05 -4.65512530e-05 -3.46912930e-05
      -4.00819881e-05 -3.23839522e-05 -5.69181175e-05 -5.24145253e-05
      -3.66513887e-05 -4.91544815e-05 -1.73957724e-05 -3.79543917e-06
      -4.14859505e-06 -2.23584684e-05 -4.86604258e-05 -5.29795907e-05
      -6.89228837e-05 -4.06107138e-05 -4.84799020e-05 -3.63015242e-05
      -1.51603381e-05 1.61382613e-05 4.56047965e-05 6.12539661e-05
      6.97390642e-05 3.45012922e-05 1.77006768e-05 2.53195740e-05
      -6.06449566e-06 -4.36380724e-05 -4.51891428e-05 -3.11818112e-05
      -3.34342694e-05 -3.19005703e-05 -2.33444316e-05 -2.46626441e-05
      -4.66845668e-05 -3.46291272e-05 -3.54169242e-05 -2.90154294e-05
      -2.64392565e-05 -6.48629502e-05 -6.35249962e-05 -6.71233138e-05
      -4.97497567e-05 -8.28275279e-06 7.11567236e-06 8.02980321e-06
      -1.19760252e-05 -4.21910481e-05 -3.62975334e-05 -5.18585766e-05
      -3.11807744e-05 -3.38406644e-05 -1.03693646e-05 -9.68628592e-06
      7.61844467e-06 3.67783141e-05 3.87597247e-05 3.91848953e-05
      3.11211224e-05 1.84598284e-05 2.28490189e-05 1.44088499e-05
      -2.38206085e-05 -3.58343023e-05 -1.67171511e-05 -1.74292418e-05
      -1.54451197e-06 1.61994139e-05 -1.29470554e-05 -3.68086912e-05
      -3.91242538e-05 -1.50287124e-05 -3.00948141e-05 -3.73904113e-05
      -7.05059501e-05 -5.26457952e-05 -4.69858242e-05 -3.49860238e-05
      -7.13564486e-06 4.21614914e-06 2.69647376e-06 -7.84587155e-06
      -2.64421651e-05 -1.05178960e-05 -2.67746582e-05 -2.30340302e-05
      -1.39710110e-05 -3.12505945e-05 -1.11767458e-05 -1.98382422e-05
      1.43094712e-05 1.50289261e-05 2.39254077e-05 4.40904696e-05
      2.95970603e-05 3.24787106e-05 1.31923916e-05 -4.41266820e-06
      -1.19399847e-05 1.16171768e-05 4.66180791e-06 7.66519315e-06
      2.85214446e-05 -1.33846133e-05 -3.04685309e-05 -2.92467012e-05
      -6.64254185e-06 -2.56606108e-05 -4.13584930e-05 -6.12117292e-05
      -5.59457258e-05 -5.19352689e-05 -5.36137486e-05 -3.48383255e-05
      -1.09641533e-05 -4.19924106e-07 -4.63229026e-06 -2.78461903e-05
      -1.12344264e-06 6.74344665e-06 -2.49187042e-06 -9.95992923e-06
      -2.58401305e-05 -1.69941050e-05 -2.42245515e-05 1.61066455e-05
      1.17371146e-05 1.59688952e-05 3.52441202e-05 6.58038243e-06
      3.17425438e-05 6.45831597e-06 -4.65491166e-06 -7.42967723e-06
      2.90919270e-05 2.76609644e-05 2.26454722e-05 2.24926389e-05
      -1.39426720e-05 -2.03792952e-05 -2.06112491e-05 -3.47786749e-06
      -3.68211222e-05 -5.86789865e-05 -4.85667624e-05 -6.00018611e-05
      -5.75847116e-05 -8.18186090e-05 -3.98456141e-05 -1.04971778e-05
      -1.03635321e-05 -4.18523769e-06 -2.31132035e-05 -3.14859753e-05
      -2.68662934e-05 -1.66661648e-05 -1.67845828e-05 -3.59768819e-05
      -3.14771023e-05 -1.15954526e-05 -3.37006099e-06 1.07156416e-06
      3.66966788e-06 2.94023866e-05 1.57396025e-05 2.81703378e-05
      4.72987949e-06 7.35671165e-07 -1.04995797e-05 2.11473907e-05
      1.93290616e-05 3.68145520e-05 3.34852703e-05 1.61166452e-06
      -3.28508213e-05 -1.82912518e-05 -1.51171912e-06 -3.81572027e-05
      -6.16723773e-05 -5.02241310e-05 -4.37222916e-05 -1.89318562e-05
      -5.46261654e-05 -3.13920791e-05 -1.12948519e-05 1.96426754e-06
      1.53644453e-06 -1.73362459e-05 -3.58732468e-05 -3.89820525e-05
      -1.40334760e-05 -8.07157176e-06 -4.78849615e-05 -4.58149661e-05
      -2.37083223e-05 -8.28728730e-07 -6.76150967e-06 4.70210944e-06
      4.02530059e-05 3.69489389e-05 1.69034047e-05 1.85184072e-05
      2.35264338e-06 1.18750395e-05 2.25363401e-05 3.46370325e-06
      1.11600366e-05 1.08038721e-05 -1.02818167e-05 -3.89992638e-05
      -2.67875475e-05 -3.69798254e-05 -5.10473074e-05 -5.75848680e-05
      -5.96659338e-05 -3.95858951e-05 -2.89904875e-07 -4.31172375e-05
      -2.48971064e-05 -1.03046486e-05 -7.09643518e-06 -1.30707513e-05
      -6.07995889e-06 -4.84790653e-05 -5.94055746e-05 -1.20472359e-05
      8.89739295e-06 -2.90907119e-05 -4.35690672e-05 -3.38433165e-05
      -7.47470494e-06 -1.57993563e-05 -1.27605408e-05 1.05167910e-05
      2.85323931e-05 1.56862316e-05 1.61989847e-05 -9.59939257e-07
      -3.10577548e-06 1.02087165e-06 -1.88337635e-05 -1.56819733e-05
      -7.64547349e-06 4.04926459e-06 -1.67225171e-05 -2.04671051e-05
      -3.79017838e-05 -4.24946811e-05 -5.47577329e-05 -3.75528361e-05
      -3.51487361e-05 -1.50193619e-05 -5.36719781e-05 -2.50378707e-05
      -1.18863159e-06 5.87084787e-06 6.96512006e-06 2.47499457e-07
      -1.22235788e-05 -5.07755904e-05 -2.62492426e-06 3.50331320e-05
      7.78240519e-06 -4.43269755e-06 -3.00008742e-05 -1.62644246e-05
      -1.48535428e-05 -1.72608020e-06 -1.39968133e-05 2.13185722e-05
      2.79313226e-05 2.78421048e-05 1.31888655e-05 4.57518672e-06
      -1.53378678e-05 -3.22869491e-05 -3.45578665e-05 -3.19243918e-05
      -8.97934660e-06 -1.70128151e-05 -3.15458237e-05 -4.00728386e-05
      -5.95110796e-05 -6.09004710e-05 -3.65037231e-05 -4.66379679e-05
      -8.80184143e-06 -3.57752833e-05 -1.45836520e-05 1.29318198e-06
      5.27633165e-06 2.70560922e-05 -3.51613312e-06 -2.26180709e-05
      -2.66510742e-05 -8.25644292e-06 2.77953641e-05 4.81224106e-06
      1.05161862e-05 -1.97482514e-05 -2.64545524e-05 -9.80024925e-06
      -2.36910864e-06 -1.84726923e-05 -1.21286603e-05 7.72811018e-06
      1.94949480e-05 3.12070406e-05 -2.46444756e-06 -1.40141574e-05
      -3.62932115e-05 -2.06094210e-05 -2.65719009e-05 -3.27243179e-05
      -5.29581448e-05 -5.47280652e-05 -6.03143671e-05 -7.73912834e-05
      -9.63341590e-05 -5.89025949e-05 -4.61889395e-05 8.44406259e-06
      -5.27084158e-05 -3.32540221e-05 -1.10523533e-05 -9.45006093e-07
      1.93284432e-05 -9.04995886e-06 -3.85487219e-05 -3.28871647e-05
      -6.73841942e-06 -7.47186186e-06 -3.25632777e-06 3.76479557e-06
      4.66390884e-06 9.35640128e-06 -8.51242112e-06 -6.69575729e-06
      -1.90142600e-05 -1.09440334e-05 -3.00557258e-06 4.55799682e-06
      -4.21909863e-06 -8.70300391e-06 -1.97276695e-05 -1.19399183e-05
      -2.19468457e-05 -2.40928966e-05 -2.70306973e-05 -3.84882696e-05
      -3.92983238e-05 -3.93947157e-05 -6.42286468e-05 -1.02580409e-04
      -6.10411080e-05 -3.72448594e-05 -1.22496058e-05 -3.86475513e-05
      -3.02018525e-05 -1.27109633e-05 -1.24982389e-05 4.49553272e-06
      -5.77513583e-06 -2.28492027e-05 -3.85156673e-05 1.61167998e-06
      1.19929177e-06 4.71720659e-06 3.46840934e-05 1.77092807e-05
      1.29437503e-05 -3.08439894e-06 -1.71001125e-06 -3.11821968e-05
      -1.82978019e-05 -9.07547201e-06 -8.54206337e-06 -2.33808460e-05
      -1.23766367e-05 -7.24560778e-06 -2.80299628e-06 -1.88278846e-05
      -1.75905952e-05 -3.86679785e-05 -2.33344708e-05 -1.37328689e-05
      -3.48648646e-05 -6.89057852e-05 -8.47263364e-05 -5.92733195e-05
      -6.95382550e-05 -3.53561190e-05 -5.15478678e-05 -5.16214350e-05
      -4.18493546e-05 -2.84587604e-05 -1.69687519e-05 -4.22698649e-05
      -3.97469485e-05 -3.19866667e-05 1.06640537e-05 1.37991263e-08
      -4.99906446e-06 1.67221369e-05 2.33516239e-05 3.10915721e-06
      -3.12237025e-05 -1.44856804e-05 -3.67216635e-05 -4.69735096e-06
      4.20076321e-06 -5.99069290e-06 -1.82448530e-05 -2.38454395e-05
      -1.62733159e-05 -1.08113427e-05 -1.76181584e-05 -1.40002812e-05
      -2.46297641e-05 -5.81693257e-06 5.00165243e-07 -1.45928088e-05
      -4.85489290e-05 -7.42134798e-05 -4.78900402e-05 -6.11088617e-05
      -4.04878083e-05 -5.05575772e-05 -4.90277307e-05 -3.78123586e-05
      -8.77376169e-06 3.32386350e-08 -2.45757165e-05 -4.51182750e-05
      -2.89296531e-05 1.64484809e-05 -1.21557196e-05 -1.48949957e-05
      7.21214701e-06 -5.15757802e-06 -1.56613860e-05 -3.73337025e-05
      -5.36566267e-06 -1.77359252e-05 1.73583103e-05 1.77059410e-05
      5.96676273e-06 -1.46731736e-06 3.07230994e-06 4.31847911e-06
      -1.08706956e-06 3.76627622e-06 1.53930232e-05 1.20026079e-05
      2.59791659e-06 1.40582970e-05 -2.35813650e-06 -2.61474306e-05
      -6.09602685e-05 -5.36827320e-05 -7.08234002e-05 -5.89610318e-05
      -6.84057813e-05 -5.03873998e-05 -3.25092878e-05 -5.35613799e-06
      4.21756749e-06 3.03284509e-07 -1.88613158e-05 -3.35543191e-05
      1.64661742e-05 2.00637956e-07 -5.18779143e-06 6.90702927e-06
      2.03521467e-05 -1.28879374e-05 -3.17554404e-05 -1.11638929e-05
      -2.31437371e-05 7.24676102e-06 1.55433645e-05 5.28155988e-06
      -5.46134243e-06 1.04356968e-05 1.66500358e-05 8.41412020e-06
      7.35628510e-06 1.98679809e-05 -5.57111207e-06 -4.44634315e-06
      8.99553197e-06 2.29904617e-06 -1.59065603e-05 -5.27642660e-05
      -4.62970529e-05 -3.91364556e-05 -4.29380125e-05 -2.92645436e-05
      -3.62772116e-05 -1.01422083e-05 1.99151491e-05 3.24710527e-05
      2.82183191e-05 1.02668937e-05 -6.41516590e-06 3.05992080e-06
      1.22609599e-05 -1.63981676e-05 2.62791400e-06 1.60872041e-05
      3.65739015e-06 -2.98220202e-05 -2.10803319e-05 -2.84677662e-05
      -6.25931762e-07 3.77720812e-06 9.42979295e-06 -1.69331561e-05
      -1.53383207e-05 2.01274797e-05 5.27806787e-06 1.23900527e-05
      2.25389922e-05 -6.13128532e-06 4.19385697e-06 1.32460309e-05
      1.44093156e-05 5.46251442e-07 -1.82771309e-05 -3.27098933e-05
      -2.79719734e-05 -3.88322369e-05 -2.47614535e-05 -3.64472144e-05
      5.88793591e-06 2.38487410e-05 3.69270820e-05 2.45608135e-05
      -1.48578447e-05 -3.06183501e-05 -8.09837638e-06 1.01082851e-05
      -9.05133129e-06 4.61179889e-06 8.77111688e-06 6.73257136e-06
      -2.01731837e-05 -1.07639344e-05 -2.74040631e-05 6.05068590e-06
      -4.24489997e-07 3.26044778e-06 -1.21127923e-05 6.06603135e-06
      3.70453708e-05 -2.09602385e-05 1.52799148e-05 1.92980315e-05
      2.06293225e-06 2.18360365e-05 3.00741340e-05 3.06755610e-05
      3.32460877e-05 7.34036939e-06 -3.42390886e-05 -1.83227767e-05
      -3.59822625e-05 -3.20035579e-05 -3.12297634e-05 9.55776341e-06
      3.88948574e-05 5.04464733e-05 2.26896045e-05 -2.23991447e-05
      -3.84016203e-05 -1.47646806e-05 -1.99443207e-06 -3.76893286e-06
      8.60084492e-06 3.11459116e-05 2.05912293e-05 -9.72356474e-07
      -8.67910148e-06 -2.25823951e-05 4.44934841e-07 -8.02946090e-07
      9.99386793e-06 -7.37304345e-06 -2.44550811e-05 -2.49260793e-05
      -8.05699601e-05 -3.60543345e-05 -1.63220884e-05 6.86196472e-06
      9.09811115e-06 2.01854691e-05 4.67705877e-06 -1.17965783e-06
      -5.20212234e-06 -2.32085931e-05 -2.09172485e-05 -2.36672822e-05
      -1.10932124e-05 -1.56254355e-05 2.43954946e-05 4.55613481e-05
      3.98420598e-05 -4.76590031e-07 -2.08923520e-05 -3.07516166e-05
      -2.48977667e-05 -1.08984377e-05 -5.36619837e-06 6.86639987e-06
      2.06402146e-05 3.15825964e-05 -4.20341894e-06 -2.05937667e-05
      -1.68057413e-05 1.18729895e-05 -5.72765475e-06 -4.83828353e-06
      -2.59592198e-05 -3.22177439e-05 -4.22318262e-05 -6.85717387e-05
      -3.27005982e-05 -2.89316849e-05 -1.23312166e-05 -2.74378681e-06
      8.77336220e-07 -1.34283209e-05 -1.57438899e-05 -9.16949375e-06
      -3.16137193e-05 -2.14854499e-05 -2.33461651e-05 -1.01147516e-05
      -3.12055599e-05 4.55904728e-06 3.51586386e-05 2.69852808e-05
      4.70638042e-06 -2.21933096e-05 -2.28946919e-05 -1.91726158e-05
      -8.06201228e-07 8.57909470e-07 2.40325189e-05 1.68044317e-05
      4.31561166e-05 1.00904645e-05 -5.33848424e-06 -2.28593467e-06
      1.10521732e-05 4.24924963e-07 1.10936644e-05 -9.03558703e-06
      -2.43272461e-05 -3.41836967e-05 -6.45858163e-05 -4.02877413e-05
      -2.90279313e-05 -7.68054178e-06 -5.05162734e-06 -1.16904278e-06
      -3.62432979e-06 -1.85370554e-05 -2.74701642e-06 -2.11949082e-05
      1.07401843e-06 -2.13504136e-05 -7.13674717e-06 -4.33740788e-05
      1.26509713e-05 3.06794391e-05 2.21323990e-05 7.89904425e-06
      -1.67840353e-05 -2.05329015e-05 -6.13697603e-06 -1.74369125e-05
      -1.52336097e-05 -1.07020958e-06 -1.50994765e-07 -9.40097016e-06
      -1.07329597e-05 -2.04718599e-05 2.22799881e-05 2.26739612e-05
      2.82586680e-05 2.82904366e-05 1.57471186e-05 4.35774336e-06
      -5.94352787e-06 -3.31138144e-05 -1.68477818e-05 -5.68612677e-06
      2.10799280e-05 1.24968265e-05 1.82145013e-05 2.09878272e-05
      4.12946110e-06 -8.23263463e-07 -6.89520493e-06 1.48895815e-05
      -2.49659161e-06 9.80144432e-06 -7.02613106e-05 1.69918876e-05
      3.42050225e-05 2.36563210e-06 -9.86319628e-06 -1.36764456e-05
      -2.08127822e-05 -1.87173057e-07 -4.69579718e-05 -3.93386435e-05
      -6.89386843e-06 -1.14946006e-05 1.13295901e-05 -2.88219617e-05
      -4.58997856e-05 2.55078576e-05 2.35784955e-05 3.69493205e-06
      -4.85821192e-06 1.85692352e-05 1.99300957e-05 2.61975165e-05
      1.81743981e-05 4.17373558e-05 3.31209449e-05 2.50194425e-05
      3.13725905e-05 2.66942607e-05 3.49985348e-05 4.30814254e-07
      -1.88729828e-05 -2.04441076e-05 -3.71351553e-06 -2.35221305e-05
      -1.88713511e-05 -1.18453921e-04 -1.40236380e-05 -1.74546749e-05
      -2.82500587e-05 -4.56356393e-05 -4.87077086e-05 -4.30196887e-05
      -2.61664973e-05 -2.09502341e-05 1.22438928e-06 2.92684781e-05
      -1.77082018e-06 -3.31745068e-05 -3.52203060e-05 -5.08725534e-05
      2.57937463e-05 2.76055143e-05 -9.15260171e-06 -1.48623030e-05
      -5.20425147e-06 1.03403017e-05 1.68929782e-05 4.29716101e-06
      3.29774521e-05 2.89967884e-05 -1.60963987e-06 -2.15451346e-05
      -1.59029441e-05 -1.04898991e-05 -3.96037176e-05 -6.18501581e-05
      -4.92069448e-05 -2.52800073e-05 -3.44462896e-05 -2.44645616e-05
      -8.48244454e-05 -1.29810342e-05 -1.68162369e-05 -1.47340015e-05
      -2.72365232e-05 -4.13031921e-05 -3.64471089e-05 -3.87446635e-05
      -1.00894085e-05 7.38369363e-06 4.09427885e-05 4.48763130e-05
      -2.47263724e-05 -3.56007404e-05 -2.88410320e-05 5.55369261e-05
      3.47913483e-05 3.55302382e-06 -2.01833045e-05 -3.77409051e-05
      -1.86459820e-05 1.49080988e-05 -6.23689448e-06 1.18824610e-05
      1.25549823e-05 -2.27072651e-05 -4.42807032e-05 -2.62720150e-05
      -3.10801661e-05 -4.44086436e-05 -6.38584897e-05 -5.72743411e-05
      -4.07506741e-05 -4.05993778e-05 -2.88812607e-05 -1.15414216e-04
      -2.25344738e-05 1.88627166e-06 1.50464086e-06 -1.25015868e-05
      -3.12967713e-05 -2.00815939e-05 -4.68969256e-06 1.91108520e-05
      3.86863649e-05 8.27759359e-05 9.17950019e-05 1.06865364e-05
      -4.57606347e-06 9.03370619e-06 5.25049327e-05 3.34874640e-05
      2.68412095e-05 1.64765552e-05 4.33951100e-05 5.25701762e-05
      6.52878953e-05 4.76952591e-05 2.43385093e-05 -2.86216789e-07
      -2.67001087e-05 -4.93688858e-05 -1.48037097e-05 -1.61533826e-05
      -1.11889976e-05 -3.48409485e-05 -3.04155801e-05 -2.43632094e-05
      -9.53283347e-07 1.87423720e-05 -4.46971135e-05 1.97854456e-06
      2.27231558e-05 1.53319561e-05 9.24442793e-06 -7.29963176e-06
      -6.64219044e-07 2.41422313e-05 2.22143353e-05 2.08988477e-05
      3.09796487e-05 2.81124358e-05 2.56146222e-06 -1.25252500e-05
      2.47450880e-05 8.33427766e-05 3.83694278e-05 4.94061132e-05
      4.28039566e-05 5.60791450e-05 8.24785093e-05 7.65127115e-05
      2.11126280e-05 1.71623615e-05 3.38518385e-06 -2.37891672e-05
      -3.93007067e-05 -1.17527106e-05 -1.33591675e-05 -7.76169236e-06
      -2.18821915e-05 -1.87555834e-05 3.60885388e-05 3.76534044e-05
      5.85648631e-05 -4.20609758e-05 3.84805862e-05 8.89565854e-05
      6.82868558e-05 6.92494141e-05 2.61272107e-05 4.09603599e-05
      5.32384183e-05 2.58960226e-05 5.99483610e-06 -1.17851505e-05
      2.45364154e-05 -3.07758237e-05 2.37930872e-05 5.34521641e-05
      9.03505788e-05 7.54394569e-05 9.45815773e-05 8.02043360e-05
      9.23694897e-05 7.44352728e-05 7.91713173e-05 3.06897091e-05
      6.68600624e-05 5.54470498e-05 3.02779754e-05 1.16855372e-05
      3.93723240e-05 2.02310002e-05 1.56961869e-05 1.58605726e-05
      -1.13942333e-05 5.17662602e-06 2.91150645e-05 6.36485274e-05
      4.79530790e-05 7.78764515e-05 1.22811151e-04 1.10303648e-04
      1.02410908e-04 7.88295729e-05 8.04515075e-05 1.00469500e-04
      7.38201779e-05 6.51999726e-05 4.77530702e-05 9.04589324e-05
      4.99263988e-05 6.56666525e-05 1.09544031e-04 1.48826235e-04
      1.21342804e-04 1.12778762e-04 7.99915797e-05 8.24884628e-05
      8.57538034e-05 9.96409581e-05 5.49898105e-05 9.25386194e-05
      9.21647079e-05 7.94152875e-05 5.19991008e-05 6.50222864e-05
      3.21135121e-05 1.56270253e-05 1.55428661e-05 -3.79351057e-08
      1.50886171e-05 1.36627141e-05 4.45024889e-05 -6.32532101e-05
      7.45754005e-05 1.22023601e-04 1.13490401e-04 1.05446459e-04
      8.62266097e-05 9.22009640e-05 9.90960907e-05 7.87086683e-05
      6.37449921e-05 5.28766795e-05 8.33360609e-05 4.92890795e-05
      7.89810365e-05 1.07418309e-04</_></support_vectors>
  <decision_functions>
    <_>
      <sv_count>1</sv_count>
      <rho>-1.8769600153213857e+00</rho>
      <alpha>
        1.</alpha>
      <index>
        0</index></_></decision_functions></my_svm>
</opencv_storage>
